solver_type L2R_LR
nr_class 2
label 1 -1
nr_feature 201
bias -1
w
1.926609761939611 
0.2652232203703642 
-0.620385540008067 
0.1226620940759327 
-1.128036044391854 
0.4713594033571473 
-0.6621554512809381 
0.02984182908027148 
-0.3866395805965321 
0.4455445162231896 
-0.4874192302266748 
-1.123942861758702 
-0.7013752791752368 
1.28611612545504 
-0.6455012596179242 
-2.228714614058155 
0.1331563821370993 
-0.7949546670801062 
0.1870865377971644 
-1.528033657680358 
0.2042467829148086 
-0.6593617678161566 
-0.8885139644652972 
-1.972051760021336 
0.546684167409934 
-0.2766361026148244 
-1.598701598748288 
-0.4413615451081815 
0.386397149129357 
-0.1243126812491112 
0.1561791775992223 
0.3523598719967912 
0.5307540275850143 
0.3689082507169945 
0.7993305732937757 
-0.07328148516330396 
-0.465930780070117 
-0.3897494021924954 
-0.4819575537248284 
-0.6260628209467034 
0.862112704398178 
-0.5005164659847798 
0.05741143242305308 
0.125829007362886 
-0.02677454154124074 
0.1562996148692776 
0.9806214399666664 
-0.5453755906131205 
-0.3880688097487327 
-1.344271024289832 
-0.6304093351680423 
-0.3621685412109815 
0.1162060379593344 
-0.1766661054048097 
-1.042216357848377 
-0.1887882999848142 
0.9225809550815396 
0.03477694742283258 
0.0913486967548482 
-0.4521431863807235 
0.1518285887261268 
-0.2282907008948327 
-0.3435821800779424 
-1.153610839979313 
-0.3870770300915017 
-0.8299471456808915 
-0.5251850146903948 
-0.3824077355 
-0.5303846188430196 
-0.5390478740832564 
0.03671685492398543 
-0.3304628177347992 
0.2237629337252363 
-0.6727731296226638 
0.2177134233441498 
-0.09329612631601678 
0.04459168957160036 
-0.3431821190564219 
-0.4161563845458638 
-0.06590959812500258 
-0.4250598711096326 
-0.01769297481432574 
-0.3457922517381058 
-0.5309855847470658 
-0.009109965944189044 
-0.367268816272108 
-0.02252345102470089 
-0.4356494089267582 
-0.1158532331861662 
-0.4969767198867107 
0.4431343445117507 
-0.06099035316108184 
-0.2783928938789301 
-0.6153871566552588 
0.3985440045856371 
0.2672702338166039 
0.1425156464113347 
-0.5113793159685229 
-1.638638684082159 
-1.555647567335386 
-0.2043871459442472 
0.3517635475768598 
-0.1450272138540741 
0.6965615457164294 
-0.4765189764240569 
0.07302003612060301 
0.3105977429748958 
0.4739866616357107 
0.4270995695315265 
0.4542977202463711 
0.5323792318144013 
-0.5395476723837658 
-0.2789228752021519 
0.5074449450563266 
-0.6138734062396807 
-0.3756762873699207 
-0.589883829496303 
-0.031735745183057 
0.232972520435511 
0.1795773710348426 
-0.01981436265946367 
0.2747156941970611 
-0.67310136355006 
1.120587136927297 
-0.2721863202291465 
0.460458721939994 
1.115830233272569 
0.9541194547253464 
0.8248050173123689 
0.38665751151878 
-1.300184145704902 
0.2661688141017513 
0.3690839101672147 
-0.539804173599949 
0.3897283035942803 
0.1330147440134942 
-0.1966775750466832 
0.07287213397118067 
-0.4116492204525198 
0.06204597705571549 
0.005615861386859065 
-0.5648845628782072 
-0.1459263166762775 
-0.8654231701811104 
0.9088775096597884 
-0.3120193774747596 
-0.8264831113534953 
0.8042775796345676 
-0.1494151030803798 
-0.1123301491016859 
-0.7115645902989289 
0.5189041330647087 
0.3946729798782843 
0.007581911260363283 
-1.06081841319276 
1.00930135800684 
-0.5118339222958935 
-0.6225048108966794 
-1.20507702919165 
-0.3288150671809195 
-0.3147886604094471 
-0.5949572886994114 
0.1182241686125816 
-0.7781068608891952 
-0.07282931210385177 
-0.3789375208466416 
-0.6087340325220855 
-0.8899724585208806 
1.367169378794866 
0.9733766515795506 
1.41613413251174 
0.1641420734697817 
-1.094809570717324 
0.7668833955270972 
-0.3340408543776954 
1.063360174606466 
0.6202275104453937 
-0.8269974662299975 
0.8043760682810223 
0.8162428646412047 
-0.09708708237493383 
-0.1355432304130199 
0.7149779132537518 
-0.101530426758488 
-0.4679375184482202 
0.1416001144563578 
0.4365357585573221 
-0.354456478589357 
-0.6475841235232149 
-0.2528300337341542 
1.167797043580244 
-0.2137321141978682 
-0.3480711252234154 
0.4125317497156534 
-0.9568966851157967 
0.6898542937305621 
-1.934677238623426 
0.1538901083776244 
-0.1421865818735393 
-0.2018176646777085 
-0.3338585563508732 
