solver_type L2R_LR
nr_class 2
label 1 -1
nr_feature 201
bias -1
w
0.06847562633459238 
-1.531528223274231 
0.4415908044108382 
-0.589579518231207 
0.5978975284312398 
0.2730590033980174 
0.2456363200819031 
-0.05206424997570416 
0.1899648148274086 
0.08356669532938157 
-1.0456184778539 
1.75502958913472 
-0.4474657120910962 
0.6620687695736265 
-0.1500494964595419 
-1.144415103863617 
0.554936898098081 
0.5417637149630389 
0.2354245003262902 
0.5670140944409943 
1.458209296853154 
-0.5045639094169858 
1.52071655166371 
0.4537731729561843 
-0.149285423282718 
-0.1071280212792761 
0.5551791222135115 
1.052833506458214 
-1.076768972730655 
-1.244959111784468 
0.6287631167129952 
0.7243319060719655 
-1.274775492606273 
1.736821987539782 
-2.98828603565508 
0.2269622204319278 
-1.038126311153781 
-0.8522529198890062 
0.08842765066678818 
-0.2036855617898156 
0.1304016798693996 
-0.2689919895100622 
-1.592042531501579 
0.5620699868476686 
-0.3239771003103328 
-2.384290895767769 
-0.4128865673176791 
-0.1021399075814704 
0.5720357282530487 
-0.3863983936932009 
0.7844412186869923 
1.410450551751162 
0.2893439293923891 
0.258074702436646 
-0.7480262555029389 
-0.3159549455211776 
-0.8429642995760465 
-2.269111824252641 
-1.157274393623956 
0.1331892807613494 
0.1423819777467733 
0.8426732785486575 
0.5168281489550579 
0.1842835344218266 
-0.1807780395251341 
-0.498991286421316 
0.3420406544774123 
0.3824772290909715 
1.574621175934091 
0.2616593775489311 
1.281248317665955 
0.7782825396232448 
0.4334066326982314 
-0.3755340603952633 
0.8465486159423572 
0.02205533549727491 
-1.683377579667657 
1.559248985693618 
0.3894097642315573 
0.1577777768239287 
1.264258997071624 
0.9156091084860802 
0.1040848469842636 
-0.3824472766178272 
0.03937418503317019 
0.5346087508202654 
0.7226972749111408 
-0.0366411790159339 
-0.8371673868889236 
1.125405329096588 
-0.2609536979385974 
0.4889183669629444 
-0.4150008361828484 
-0.424073888083793 
0.7291641404357504 
-0.7463745947863242 
0.4043662867165316 
0.2423054124084706 
-0.2514813586201649 
-1.067866574402039 
0.8488273101351181 
-0.5730226687466878 
-1.938537424036782 
-1.401467033185051 
-3.553928685167385 
-1.950077265503126 
-1.565787274855346 
-1.198857507110084 
-2.413199198382622 
-1.536830175403793 
-1.55451903105093 
-1.674186971085312 
-1.439885867905013 
0.1620330860015638 
-2.398903975450922 
-5.743358988499814 
-1.047983268236695 
-3.112330762335302 
0.2760668177509017 
-1.707786823502599 
-0.3002896342897615 
-0.2151848231911538 
-0.4981966733013373 
-6.732278073064583 
-0.417601763619495 
-2.196763988690561 
-1.828784844480883 
-0.9260508627242661 
-0.7776780122769763 
-1.672957804002617 
-0.4905501325113579 
-0.6042495124625316 
-0.7949481909236208 
-0.5029345294848957 
0.1561126693114338 
-0.07183123481657111 
-2.850990384913408 
-0.8683459788147618 
-0.6067527232597667 
-1.376577974881613 
-0.2386682695715704 
-1.493699583475346 
-1.322319034895574 
0.4307924735551525 
-0.8165349442159731 
-0.06344199787389886 
0.4918153531300141 
-2.026138117943004 
-2.559187018844749 
-3.956120648028339 
-0.9005481229401657 
-0.6746286401020261 
-0.9126670583876708 
-0.9834121616428779 
-1.297507138249363 
-0.4179711520605667 
-1.569798605249095 
-0.2265538122614879 
-1.223766355001535 
-0.9073007735412221 
-1.202050506264772 
-1.696030138013565 
-1.189116529019166 
-0.8778200511751812 
-1.908508673078374 
-0.3661442944175327 
-0.9245896233165709 
-0.7130881949964059 
-0.8018823638503181 
-2.029969165289572 
-1.012275799150364 
-1.766333245789795 
-0.02823505366414304 
-1.54363325287546 
-0.9782284796717501 
-0.8822955196532054 
-0.4424881378636387 
-1.884812663205738 
-2.256770203689251 
-0.9651362022544727 
-0.3653997618929006 
-0.849907426495263 
-1.242365259189954 
-1.184943226413679 
-0.6192873347644939 
-0.01478123648167431 
-0.1953035221983612 
-1.19711723962279 
-1.468303286636946 
-0.6606102931205199 
-1.22609304153992 
-2.206866941099147 
-1.501302904058341 
-0.8003895378919801 
-0.1741642598042397 
-0.1429580368647378 
-0.6401888666947601 
-1.523851680948788 
-2.527578427385014 
-1.41584328820874 
-0.6318183081313291 
